-0.051466 
0.437259 
-0.437563 
-0.011935 
0.220586 
-0.546227 
0.316417 
-0.326816 
-0.246490 
0.179570 
0.114185 
0.281941 
-0.034024 
-0.381131 
-0.639697 
-0.042432 
-0.176538 
-0.667052 
0.409845 
-0.286658 
-0.649494 
0.306728 
-0.072798 
0.630036 
-0.705414 
0.223591 
-0.040421 
0.104028 
-0.364883 
-0.268171 
-0.527714 
-0.164777 
-0.025494 
-0.038345 
-0.298563 
0.345967 
-0.380138 
0.475836 
0.163439 
0.346004 
0.223937 
-0.532079 
0.307926 
-0.256477 
-0.607470 
0.623379 
0.445203 
0.299931 
0.192239 
-0.300011 
-0.356450 
-0.263435 
-0.038283 
-0.204040 
-0.304935 
0.552391 
-0.065843 
0.545766 
0.004388 
0.441713 
-0.011522 
0.012636 
-0.294583 
-0.388296 
-0.610914 
-0.480739 
-0.387492 
0.355069 
-0.473219 
0.517490 
-0.602006 
0.302629 
-0.234483 
-0.205475 
-0.510695 
0.239580 
0.568945 
-0.152454 
0.097037 
-0.333931 
-0.453368 
-0.083336 
0.217173 
-0.163708 
0.404259 
0.425063 
-0.338434 
-0.478337 
0.089905 
-0.050380 
0.131426 
-0.347425 
-0.588497 
0.187422 
-0.664488 
-0.307818 
0.482209 
0.355689 
-0.181245 
0.575264 
-0.520896 
-0.543927 
0.311995 
0.336156 
-0.201422 
-0.098664 
-0.415194 
-0.280466 
-0.657808 
0.165492 
-0.253139 
0.354914 
-0.484597 
-0.538030 
0.073351 
0.086951 
0.416650 
0.019401 
-0.170127 
-0.735990 
0.262570 
0.316624 
0.421740 
0.215791 
-0.580261 
0.014957 
0.001796 
-0.383873 
0.346411 
-0.694336 
0.429404 
0.141930 
0.452747 
-0.221647 
-0.359411 
0.530561 
0.354911 
-0.409878 
0.243233 
0.264199 
-0.311957 
-0.173990 
-0.112751 
-0.610296 
0.376554 
0.159542 
-0.263612 
-0.549846 
0.317355 
0.372359 
0.128908 
-0.401502 
0.554866 
-0.358166 
-0.239207 
-0.382109 
-0.390101 
0.315394 
0.305528 
0.129156 
-0.816509 
-0.043691 
-0.452662 
-0.426546 
-0.810839 
-0.635827 
0.512197 
0.491917 
0.068373 
0.317313 
0.045999 
0.228035 
-0.048074 
0.180474 
0.311983 
-0.223580 
0.049875 
-0.318895 
-0.193649 
-0.738185 
0.186651 
-0.406542 
0.198753 
0.165571 
0.143229 
-0.465951 
-0.267710 
0.278410 
0.403903 
0.382760 
-0.139585 
-0.063743 
-0.375406 
-0.598936 
-0.445215 
-0.147976 
0.460742 
0.041700 
0.254544 
-0.288734 
-0.274043 
-0.454533 
-0.584368 
0.438150 
-0.075225 
0.269583 
0.285431 
-0.202577 
0.545439 
-0.264948 
0.314675 
0.366669 
0.194867 
-0.358428 
0.058694 
-0.037710 
0.421423 
0.227403 
0.532401 
0.043924 
-0.534417 
-0.765119 
0.024271 
0.170857 
0.111743 
0.153464 
-0.609623 
-0.499427 
-0.404874 
-0.563061 
-0.385804 
-0.123571 
0.253811 
-0.643707 
0.090048 
0.214962 
0.485578 
-0.670085 
0.556624 
-0.148847 
-0.298164 
0.119809 
-0.247718 
-0.486054 
-0.190434 
-0.467147 
-0.131344 
0.374251 
0.491321 
-0.111455 
-0.158454 
0.550144 
-0.521836 
0.406803 
-0.601033 
-0.554943 
0.152591 
-0.499303 
-0.529868 
0.327043 
-0.706238 
0.227064 
-0.149222 
-0.194636 
-0.256886 
0.275339 
0.016884 
0.249924 
-0.354975 
-0.495322 
-0.194360 
0.252302 
-0.440701 
-0.173169 
-0.600719 
-0.116549 
0.509703 
-0.174365 
-0.028757 
-0.031051 
0.331323 
-0.205952 
-0.444418 
0.567572 
0.450103 
-0.338981 
0.490908 
-0.517804 
-0.663515 
-0.022014 
-0.522417 
-0.444314 
0.164980 
0.509300 
-0.108948 
0.458605 
-0.430019 
0.145116 
0.474273 
-0.144990 
0.276073 
0.536005 
-0.411308 
0.372602 
0.272704 
-0.289858 
0.325024 
-0.567148 
0.339400 
0.090898 
0.385318 
-0.185199 
-0.524254 
0.118627 
-0.012249 
-0.726483 
-0.034470 
-0.037033 
-0.326552 
-0.451611 
-0.315657 
0.035197 
-0.601864 
0.159674 
0.384536 
0.019311 
-0.538668 
0.338595 
0.019030 
0.084138 
-0.070401 
-0.192938 
-0.264279 
-0.584478 
-0.727212 
-0.149848 
0.528127 
0.248149 
-0.603915 
0.055609 
0.023740 
0.487670 
0.278511 
-0.628263 
-0.299898 
-0.145558 
0.518693 
-0.316530 
0.142189 
0.555612 
-0.691235 
-0.266714 
0.422687 
0.112723 
-0.620874 
0.084502 
0.403589 
-0.469654 
0.134590 
-0.040219 
-0.110180 
-0.288626 
0.124096 
-0.385658 
0.020040 
0.193252 
0.260559 
0.140350 
-0.334528 
0.098490 
0.338989 
-0.540847 
-0.407401 
-0.626342 
0.546793 
0.364431 
-0.511387 
-0.141894 
-0.213363 
-0.607492 
0.103053 
0.532726 
-0.278457 
-0.605616 
-0.006256 
-0.095274 
0.330905 
0.021527 
0.521829 
0.247813 
-0.369599 
-0.219299 
0.614096 
0.319195 
-0.172109 
-0.537944 
-0.542915 
-0.142153 
0.166604 
-0.532295 
-0.196887 
0.334503 
-0.355854 
0.299090 
-0.043229 
0.535535 
-0.186917 
0.060515 
-0.324883 
-0.352783 
-0.124240 
-0.090088 
-0.397075 
-0.239142 
0.011714 
-0.430999 
0.089337 
0.410012 
-0.258992 
0.269759 
-0.261572 
0.309703 
-0.391867 
-0.552197 
-0.026688 
-0.129229 
-0.416045 
0.267900 
-0.240539 
-0.422768 
-0.315939 
0.106967 
0.190300 
-0.642561 
0.610481 
0.039043 
0.725117 
-0.463376 
0.123851 
0.293244 
-0.346323 
-0.344630 
0.249533 
0.308044 
0.070986 
-0.660558 
0.611686 
0.370981 
-0.628118 
-0.125907 
-0.195720 
0.316536 
0.048975 
0.560727 
-0.199468 
-0.087520 
-0.231386 
-0.163921 
-0.243644 
0.046022 
-0.082576 
0.592909 
0.450437 
0.200088 
0.464301 
-0.445581 
-0.506217 
-0.588721 
0.034694 
-0.169984 
-0.767856 
0.366655 
-0.509863 
-0.038193 
0.258811 
-0.372127 
0.288716 
-0.092179 
-0.520474 
0.316611 
-0.091689 
0.146159 
-0.628457 
0.085443 
-0.594141 
0.291565 
-0.210570 
0.173151 
-0.520939 
-0.154383 
-0.481313 
0.646797 
-0.532468 
-0.222471 
0.377487 
-0.465431 
-0.195489 
0.270930 
-0.513330 
0.481776 
-0.546813 
-0.515451 
-0.017996 
0.016550 
0.056991 
-0.462729 
-0.129544 
-0.341422 
-0.576798 
0.739570 
0.170020 
0.006449 
-0.625117 
0.005837 
-0.481578 
0.215872 
-0.039771 
-0.343035 
0.351073 
0.489159 
-0.119912 
-0.047430 
-0.374658 
0.433269 
-0.195099 
-0.334799 
-0.205327 
0.497199 
0.561180 
0.013656 
0.174807 
0.625634 
-0.387448 
0.462384 
0.053157 
-0.367673 
0.193887 
-0.615916 
0.384391 
0.332783 
-0.191198 
-0.038647 
0.406758 
0.374585 
-0.605394 
-0.607132 
-0.195792 
-0.497563 
-0.083187 
0.471147 
0.109377 
0.165890 
-0.346602 
-0.650701 
0.582938 
-0.803344 
-0.183993 
0.265914 
-0.711246 
-0.116300 
-0.275503 
-0.075450 
-0.245635 
0.151442 
0.376526 
0.314112 
0.204638 
0.236449 
-0.193042 
0.094093 
-0.659446 
-0.553631 
-0.362573 
0.429169 
0.447436 
-0.287976 
-0.214021 
0.338045 
0.691823 
0.400545 
-0.060683 
-0.273302 
0.129297 
-0.695214 
-0.345146 
0.349197 
-0.643551 
-0.040033 
-0.119013 
-0.624807 
0.215617 
0.024747 
0.170120 
0.275357 
-0.617505 
0.154028 
-0.482381 
-0.299243 
-0.512957 
0.591622 
-0.263695 
-0.449561 
-0.305010 
0.144622 
0.293284 
-0.618954 
-0.085141 
0.162053 
0.347375 
-0.472812 
0.584287 
0.025713 
0.330888 
0.099067 
-0.694439 
-0.725054 
-0.026117 
-0.413183 
0.161948 
-0.620483 
-0.434118 
0.519427 
0.631571 
0.498610 
-0.796945 
-0.773957 
-0.016831 
0.565610 
0.154150 
-0.182699 
-0.230804 
-0.265877 
-0.601260 
0.208395 
0.011935 
-0.248928 
0.213232 
-0.148188 
-0.026150 
-0.417137 
-0.336049 
0.461636 
-0.645307 
0.099921 
0.068412 
0.005182 
-0.161616 
0.548213 
0.297669 
0.194218 
-0.191383 
-0.339153 
-0.139464 
0.219971 
0.121027 
0.288468 
-0.428067 
-0.029132 
-0.152383 
0.053492 
0.009813 
0.087859 
-0.329170 
0.129792 
-0.024677 
0.288731 
0.405585 
0.218214 
0.225965 
0.167602 
0.164406 
0.244150 
-0.201701 
0.542723 
0.447926 
0.636407 
-0.319740 
0.284803 
0.020624 
-0.545972 
-0.038709 
0.189906 
-0.976285 
-0.863670 
-0.026198 
0.317271 
-0.758078 
-0.323911 
-0.468699 
-0.147222 
-0.441062 
-0.272775 
-0.468145 
-0.111209 
-0.284109 
0.229662 
0.410945 
-0.617148 
0.161577 
-0.016619 
-0.015761 
-0.235261 
0.006912 
-0.256788 
-0.277617 
-0.167548 
0.160216 
-0.612082 
0.118835 
0.268851 
-0.232787 
0.384738 
0.539380 
0.135774 
-0.418232 
-0.284171 
-0.327368 
-0.095654 
0.247990 
0.189640 
-0.159148 
-0.434763 
0.536191 
-0.536047 
0.455673 
-0.513695 
-0.133312 
0.452290 
0.365389 
0.498711 
-0.408279 
-0.469352 
-0.725516 
0.619219 
-0.583268 
-0.496095 
0.247480 
0.148345 
0.460729 
-0.343713 
0.503212 
-0.576021 
-0.224205 
0.133836 
0.367177 
-0.405544 
-0.313497 
0.557896 
-0.054527 
-0.545038 
0.593331 
-0.328923 
0.042767 
-0.472377 
-0.158314 
0.228661 
-0.122440 
0.209603 
0.498442 
0.431402 
-0.019284 
-0.542076 
-0.468524 
-0.203352 
0.355551 
-0.188908 
-0.417992 
-0.641166 
-0.163226 
-0.356610 
0.061785 
0.246820 
-0.392646 
-0.470779 
-0.462669 
0.109243 
0.691644 
0.090829 
-0.521011 
-0.047063 
-0.323613 
-0.509488 
0.368998 
0.049354 
-0.441926 
-0.019721 
0.194860 
-0.320915 
-0.102756 
-0.181749 
-0.202088 
-0.299788 
0.517060 
0.274863 
0.645932 
-0.176570 
0.274494 
-0.081086 
-0.301326 
-0.155553 
-0.591099 
-0.236684 
0.152435 
0.469145 
0.617620 
0.366216 
-0.518215 
-0.600254 
-0.762721 
-0.400279 
0.533616 
-0.285198 
-0.360017 
0.444266 
-0.062853 
-0.204981 
-0.185229 
0.493152 
-0.424429 
-0.006426 
-0.318571 
-0.695330 
0.393699 
-0.207695 
-0.269378 
0.212470 
-0.577304 
0.028490 
0.327958 
0.276941 
-0.415463 
0.519434 
-0.237465 
-0.660599 
0.048181 
0.478461 
-0.013498 
-0.410299 
0.340812 
-0.527394 
0.188958 
-0.404718 
-0.749938 
0.460171 
-0.152943 
-0.197357 
-0.095296 
-0.597931 
0.043376 
0.554500 
0.328050 
0.120687 
0.065077 
0.671877 
-0.367094 
0.008693 
-0.172016 
0.432642 
-0.090878 
-0.604498 
-0.267813 
0.493961 
-0.290924 
0.415172 
-0.204220 
0.690411 
-0.166564 
-0.136227 
0.452790 
-0.218805 
0.274214 
-0.451825 
0.241677 
0.114737 
0.159110 
-0.153610 
-0.358386 
-0.308666 
-0.650741 
-0.675063 
0.520106 
-0.441631 
0.259762 
-0.030282 
-0.060690 
0.090621 
-0.767955 
-0.654847 
-0.200846 
-0.538804 
0.175560 
-0.426023 
0.535645 
0.397826 
-0.421440 
0.464332 
0.326251 
0.055716 
-0.141431 
-0.497015 
-0.036323 
-0.219875 
